digraph Tree {
node [shape=box, fontname="helvetica"] ;
edge [fontname="helvetica"] ;
0 [label="X[1] <= 1.35\ngini = 0.168\nsamples = 1360\nvalue = [1234, 126]"] ;
1 [label="X[1] <= 1.25\ngini = 0.004\nsamples = 488\nvalue = [487, 1]"] ;
0 -> 1 [labeldistance=2.5, labelangle=45, headlabel="True"] ;
2 [label="gini = 0.0\nsamples = 450\nvalue = [450, 0]"] ;
1 -> 2 ;
3 [label="X[0] <= 1.95\ngini = 0.051\nsamples = 38\nvalue = [37, 1]"] ;
1 -> 3 ;
4 [label="gini = 0.0\nsamples = 19\nvalue = [19, 0]"] ;
3 -> 4 ;
5 [label="X[0] <= 2.1\ngini = 0.1\nsamples = 19\nvalue = [18, 1]"] ;
3 -> 5 ;
6 [label="gini = 0.0\nsamples = 1\nvalue = [0, 1]"] ;
5 -> 6 ;
7 [label="gini = 0.0\nsamples = 18\nvalue = [18, 0]"] ;
5 -> 7 ;
8 [label="X[1] <= 2.65\ngini = 0.246\nsamples = 872\nvalue = [747, 125]"] ;
0 -> 8 [labeldistance=2.5, labelangle=-45, headlabel="False"] ;
9 [label="X[0] <= 1.35\ngini = 0.412\nsamples = 430\nvalue = [305, 125]"] ;
8 -> 9 ;
10 [label="X[0] <= 1.25\ngini = 0.013\nsamples = 155\nvalue = [154, 1]"] ;
9 -> 10 ;
11 [label="gini = 0.0\nsamples = 143\nvalue = [143, 0]"] ;
10 -> 11 ;
12 [label="X[1] <= 1.95\ngini = 0.153\nsamples = 12\nvalue = [11, 1]"] ;
10 -> 12 ;
13 [label="gini = 0.0\nsamples = 6\nvalue = [6, 0]"] ;
12 -> 13 ;
14 [label="X[1] <= 2.05\ngini = 0.278\nsamples = 6\nvalue = [5, 1]"] ;
12 -> 14 ;
15 [label="gini = 0.0\nsamples = 1\nvalue = [0, 1]"] ;
14 -> 15 ;
16 [label="gini = 0.0\nsamples = 5\nvalue = [5, 0]"] ;
14 -> 16 ;
17 [label="X[0] <= 2.65\ngini = 0.495\nsamples = 275\nvalue = [151, 124]"] ;
9 -> 17 ;
18 [label="X[1] <= 1.55\ngini = 0.248\nsamples = 145\nvalue = [21, 124]"] ;
17 -> 18 ;
19 [label="X[0] <= 2.45\ngini = 0.49\nsamples = 21\nvalue = [9, 12]"] ;
18 -> 19 ;
20 [label="X[0] <= 1.55\ngini = 0.415\nsamples = 17\nvalue = [5, 12]"] ;
19 -> 20 ;
21 [label="gini = 0.0\nsamples = 3\nvalue = [3, 0]"] ;
20 -> 21 ;
22 [label="X[0] <= 1.7\ngini = 0.245\nsamples = 14\nvalue = [2, 12]"] ;
20 -> 22 ;
23 [label="X[1] <= 1.45\ngini = 0.5\nsamples = 2\nvalue = [1, 1]"] ;
22 -> 23 ;
24 [label="gini = 0.0\nsamples = 1\nvalue = [1, 0]"] ;
23 -> 24 ;
25 [label="gini = 0.0\nsamples = 1\nvalue = [0, 1]"] ;
23 -> 25 ;
26 [label="X[0] <= 2.35\ngini = 0.153\nsamples = 12\nvalue = [1, 11]"] ;
22 -> 26 ;
27 [label="gini = 0.0\nsamples = 10\nvalue = [0, 10]"] ;
26 -> 27 ;
28 [label="X[1] <= 1.45\ngini = 0.5\nsamples = 2\nvalue = [1, 1]"] ;
26 -> 28 ;
29 [label="gini = 0.0\nsamples = 1\nvalue = [1, 0]"] ;
28 -> 29 ;
30 [label="gini = 0.0\nsamples = 1\nvalue = [0, 1]"] ;
28 -> 30 ;
31 [label="gini = 0.0\nsamples = 4\nvalue = [4, 0]"] ;
19 -> 31 ;
32 [label="X[1] <= 2.45\ngini = 0.175\nsamples = 124\nvalue = [12, 112]"] ;
18 -> 32 ;
33 [label="X[0] <= 2.55\ngini = 0.058\nsamples = 100\nvalue = [3, 97]"] ;
32 -> 33 ;
34 [label="X[0] <= 1.45\ngini = 0.022\nsamples = 91\nvalue = [1, 90]"] ;
33 -> 34 ;
35 [label="X[1] <= 1.65\ngini = 0.245\nsamples = 7\nvalue = [1, 6]"] ;
34 -> 35 ;
36 [label="gini = 0.0\nsamples = 1\nvalue = [1, 0]"] ;
35 -> 36 ;
37 [label="gini = 0.0\nsamples = 6\nvalue = [0, 6]"] ;
35 -> 37 ;
38 [label="gini = 0.0\nsamples = 84\nvalue = [0, 84]"] ;
34 -> 38 ;
39 [label="X[1] <= 1.65\ngini = 0.346\nsamples = 9\nvalue = [2, 7]"] ;
33 -> 39 ;
40 [label="gini = 0.0\nsamples = 1\nvalue = [1, 0]"] ;
39 -> 40 ;
41 [label="X[1] <= 2.35\ngini = 0.219\nsamples = 8\nvalue = [1, 7]"] ;
39 -> 41 ;
42 [label="gini = 0.0\nsamples = 7\nvalue = [0, 7]"] ;
41 -> 42 ;
43 [label="gini = 0.0\nsamples = 1\nvalue = [1, 0]"] ;
41 -> 43 ;
44 [label="X[0] <= 1.55\ngini = 0.469\nsamples = 24\nvalue = [9, 15]"] ;
32 -> 44 ;
45 [label="gini = 0.0\nsamples = 4\nvalue = [4, 0]"] ;
44 -> 45 ;
46 [label="X[0] <= 2.35\ngini = 0.375\nsamples = 20\nvalue = [5, 15]"] ;
44 -> 46 ;
47 [label="gini = 0.0\nsamples = 14\nvalue = [0, 14]"] ;
46 -> 47 ;
48 [label="X[0] <= 2.45\ngini = 0.278\nsamples = 6\nvalue = [5, 1]"] ;
46 -> 48 ;
49 [label="X[1] <= 2.55\ngini = 0.5\nsamples = 2\nvalue = [1, 1]"] ;
48 -> 49 ;
50 [label="gini = 0.0\nsamples = 1\nvalue = [0, 1]"] ;
49 -> 50 ;
51 [label="gini = 0.0\nsamples = 1\nvalue = [1, 0]"] ;
49 -> 51 ;
52 [label="gini = 0.0\nsamples = 4\nvalue = [4, 0]"] ;
48 -> 52 ;
53 [label="gini = 0.0\nsamples = 130\nvalue = [130, 0]"] ;
17 -> 53 ;
54 [label="gini = 0.0\nsamples = 442\nvalue = [442, 0]"] ;
8 -> 54 ;
}
